digraph Tree {
node [shape=box] ;
0 [label="X[1] <= 4.5\nentropy = 1.573\nsamples = 208\nvalue = [73, 78, 57]"] ;
1 [label="X[1] <= 3.5\nentropy = 1.455\nsamples = 59\nvalue = [28, 22, 9]"] ;
0 -> 1 [labeldistance=2.5, labelangle=45, headlabel="True"] ;
2 [label="X[0] <= 0.5\nentropy = 1.57\nsamples = 26\nvalue = [9, 10, 7]"] ;
1 -> 2 ;
3 [label="X[1] <= 1.0\nentropy = 1.299\nsamples = 8\nvalue = [2, 5, 1]"] ;
2 -> 3 ;
4 [label="entropy = 1.0\nsamples = 2\nvalue = [0, 1, 1]"] ;
3 -> 4 ;
5 [label="X[1] <= 2.5\nentropy = 0.918\nsamples = 6\nvalue = [2, 4, 0]"] ;
3 -> 5 ;
6 [label="entropy = 0.0\nsamples = 1\nvalue = [0, 1, 0]"] ;
5 -> 6 ;
7 [label="entropy = 0.971\nsamples = 5\nvalue = [2, 3, 0]"] ;
5 -> 7 ;
8 [label="X[1] <= 2.5\nentropy = 1.572\nsamples = 18\nvalue = [7, 5, 6]"] ;
2 -> 8 ;
9 [label="X[1] <= 1.5\nentropy = 1.483\nsamples = 12\nvalue = [5, 5, 2]"] ;
8 -> 9 ;
10 [label="entropy = 1.379\nsamples = 7\nvalue = [4, 1, 2]"] ;
9 -> 10 ;
11 [label="entropy = 0.722\nsamples = 5\nvalue = [1, 4, 0]"] ;
9 -> 11 ;
12 [label="X[0] <= 1.5\nentropy = 0.918\nsamples = 6\nvalue = [2, 0, 4]"] ;
8 -> 12 ;
13 [label="entropy = 0.0\nsamples = 3\nvalue = [0, 0, 3]"] ;
12 -> 13 ;
14 [label="entropy = 0.918\nsamples = 3\nvalue = [2, 0, 1]"] ;
12 -> 14 ;
15 [label="X[0] <= 0.5\nentropy = 1.234\nsamples = 33\nvalue = [19, 12, 2]"] ;
1 -> 15 ;
16 [label="entropy = 1.379\nsamples = 14\nvalue = [8, 4, 2]"] ;
15 -> 16 ;
17 [label="X[0] <= 1.5\nentropy = 0.982\nsamples = 19\nvalue = [11, 8, 0]"] ;
15 -> 17 ;
18 [label="entropy = 0.996\nsamples = 13\nvalue = [7, 6, 0]"] ;
17 -> 18 ;
19 [label="X[0] <= 2.5\nentropy = 0.918\nsamples = 6\nvalue = [4, 2, 0]"] ;
17 -> 19 ;
20 [label="entropy = 0.0\nsamples = 2\nvalue = [2, 0, 0]"] ;
19 -> 20 ;
21 [label="entropy = 1.0\nsamples = 4\nvalue = [2, 2, 0]"] ;
19 -> 21 ;
22 [label="X[1] <= 7.5\nentropy = 1.579\nsamples = 149\nvalue = [45, 56, 48]"] ;
0 -> 22 [labeldistance=2.5, labelangle=-45, headlabel="False"] ;
23 [label="X[0] <= 1.5\nentropy = 1.573\nsamples = 120\nvalue = [33, 43, 44]"] ;
22 -> 23 ;
24 [label="X[0] <= 0.5\nentropy = 1.475\nsamples = 52\nvalue = [11, 14, 27]"] ;
23 -> 24 ;
25 [label="X[1] <= 6.5\nentropy = 1.566\nsamples = 38\nvalue = [10, 13, 15]"] ;
24 -> 25 ;
26 [label="entropy = 1.573\nsamples = 29\nvalue = [8, 11, 10]"] ;
25 -> 26 ;
27 [label="entropy = 1.436\nsamples = 9\nvalue = [2, 2, 5]"] ;
25 -> 27 ;
28 [label="X[1] <= 5.5\nentropy = 0.735\nsamples = 14\nvalue = [1, 1, 12]"] ;
24 -> 28 ;
29 [label="entropy = 0.503\nsamples = 9\nvalue = [1, 0, 8]"] ;
28 -> 29 ;
30 [label="entropy = 0.722\nsamples = 5\nvalue = [0, 1, 4]"] ;
28 -> 30 ;
31 [label="X[0] <= 2.5\nentropy = 1.551\nsamples = 68\nvalue = [22, 29, 17]"] ;
23 -> 31 ;
32 [label="X[1] <= 6.0\nentropy = 0.966\nsamples = 23\nvalue = [9, 14, 0]"] ;
31 -> 32 ;
33 [label="entropy = 0.863\nsamples = 14\nvalue = [4, 10, 0]"] ;
32 -> 33 ;
34 [label="entropy = 0.991\nsamples = 9\nvalue = [5, 4, 0]"] ;
32 -> 34 ;
35 [label="X[1] <= 6.5\nentropy = 1.576\nsamples = 45\nvalue = [13, 15, 17]"] ;
31 -> 35 ;
36 [label="entropy = 1.558\nsamples = 33\nvalue = [9, 10, 14]"] ;
35 -> 36 ;
37 [label="entropy = 1.555\nsamples = 12\nvalue = [4, 5, 3]"] ;
35 -> 37 ;
38 [label="X[0] <= 1.5\nentropy = 1.44\nsamples = 29\nvalue = [12, 13, 4]"] ;
22 -> 38 ;
39 [label="X[1] <= 8.5\nentropy = 1.478\nsamples = 23\nvalue = [8, 11, 4]"] ;
38 -> 39 ;
40 [label="X[0] <= 0.5\nentropy = 1.423\nsamples = 22\nvalue = [8, 11, 3]"] ;
39 -> 40 ;
41 [label="entropy = 1.0\nsamples = 4\nvalue = [2, 2, 0]"] ;
40 -> 41 ;
42 [label="entropy = 1.459\nsamples = 18\nvalue = [6, 9, 3]"] ;
40 -> 42 ;
43 [label="entropy = 0.0\nsamples = 1\nvalue = [0, 0, 1]"] ;
39 -> 43 ;
44 [label="X[1] <= 8.5\nentropy = 0.918\nsamples = 6\nvalue = [4, 2, 0]"] ;
38 -> 44 ;
45 [label="entropy = 0.0\nsamples = 3\nvalue = [3, 0, 0]"] ;
44 -> 45 ;
46 [label="X[1] <= 9.5\nentropy = 0.918\nsamples = 3\nvalue = [1, 2, 0]"] ;
44 -> 46 ;
47 [label="entropy = 1.0\nsamples = 2\nvalue = [1, 1, 0]"] ;
46 -> 47 ;
48 [label="entropy = 0.0\nsamples = 1\nvalue = [0, 1, 0]"] ;
46 -> 48 ;
}