digraph Tree {
node [shape=box] ;
0 [label="X[0] <= 2.5\nentropy = 1.562\nsamples = 174\nvalue = [62, 68, 44]"] ;
1 [label="X[0] <= 1.5\nentropy = 1.515\nsamples = 123\nvalue = [47, 52, 24]"] ;
0 -> 1 [labeldistance=2.5, labelangle=45, headlabel="True"] ;
2 [label="X[1] <= 4.5\nentropy = 1.564\nsamples = 94\nvalue = [35, 35, 24]"] ;
1 -> 2 ;
3 [label="X[2] <= 0.5\nentropy = 1.44\nsamples = 36\nvalue = [19, 11, 6]"] ;
2 -> 3 ;
4 [label="X[1] <= 3.5\nentropy = 0.971\nsamples = 5\nvalue = [2, 0, 3]"] ;
3 -> 4 ;
5 [label="entropy = 0.918\nsamples = 3\nvalue = [2, 0, 1]"] ;
4 -> 5 ;
6 [label="entropy = 0.0\nsamples = 2\nvalue = [0, 0, 2]"] ;
4 -> 6 ;
7 [label="X[1] <= 3.5\nentropy = 1.332\nsamples = 31\nvalue = [17, 11, 3]"] ;
3 -> 7 ;
8 [label="entropy = 1.53\nsamples = 9\nvalue = [2, 4, 3]"] ;
7 -> 8 ;
9 [label="entropy = 0.902\nsamples = 22\nvalue = [15, 7, 0]"] ;
7 -> 9 ;
10 [label="X[1] <= 7.5\nentropy = 1.563\nsamples = 58\nvalue = [16, 24, 18]"] ;
2 -> 10 ;
11 [label="X[0] <= 0.5\nentropy = 1.547\nsamples = 38\nvalue = [9, 13, 16]"] ;
10 -> 11 ;
12 [label="entropy = 1.545\nsamples = 27\nvalue = [7, 12, 8]"] ;
11 -> 12 ;
13 [label="entropy = 1.096\nsamples = 11\nvalue = [2, 1, 8]"] ;
11 -> 13 ;
14 [label="X[2] <= 5.5\nentropy = 1.337\nsamples = 20\nvalue = [7, 11, 2]"] ;
10 -> 14 ;
15 [label="entropy = 1.379\nsamples = 14\nvalue = [4, 8, 2]"] ;
14 -> 15 ;
16 [label="entropy = 1.0\nsamples = 6\nvalue = [3, 3, 0]"] ;
14 -> 16 ;
17 [label="X[2] <= 4.5\nentropy = 0.978\nsamples = 29\nvalue = [12, 17, 0]"] ;
1 -> 17 ;
18 [label="X[2] <= 2.5\nentropy = 0.991\nsamples = 18\nvalue = [10, 8, 0]"] ;
17 -> 18 ;
19 [label="X[1] <= 6.0\nentropy = 0.954\nsamples = 8\nvalue = [3, 5, 0]"] ;
18 -> 19 ;
20 [label="entropy = 0.0\nsamples = 3\nvalue = [0, 3, 0]"] ;
19 -> 20 ;
21 [label="entropy = 0.971\nsamples = 5\nvalue = [3, 2, 0]"] ;
19 -> 21 ;
22 [label="X[1] <= 8.5\nentropy = 0.881\nsamples = 10\nvalue = [7, 3, 0]"] ;
18 -> 22 ;
23 [label="entropy = 0.764\nsamples = 9\nvalue = [7, 2, 0]"] ;
22 -> 23 ;
24 [label="entropy = 0.0\nsamples = 1\nvalue = [0, 1, 0]"] ;
22 -> 24 ;
25 [label="X[1] <= 4.0\nentropy = 0.684\nsamples = 11\nvalue = [2, 9, 0]"] ;
17 -> 25 ;
26 [label="entropy = 0.0\nsamples = 1\nvalue = [1, 0, 0]"] ;
25 -> 26 ;
27 [label="X[2] <= 8.5\nentropy = 0.469\nsamples = 10\nvalue = [1, 9, 0]"] ;
25 -> 27 ;
28 [label="entropy = 0.0\nsamples = 8\nvalue = [0, 8, 0]"] ;
27 -> 28 ;
29 [label="entropy = 1.0\nsamples = 2\nvalue = [1, 1, 0]"] ;
27 -> 29 ;
30 [label="X[2] <= 1.5\nentropy = 1.574\nsamples = 51\nvalue = [15, 16, 20]"] ;
0 -> 30 [labeldistance=2.5, labelangle=-45, headlabel="False"] ;
31 [label="X[1] <= 2.5\nentropy = 0.985\nsamples = 7\nvalue = [3, 0, 4]"] ;
30 -> 31 ;
32 [label="entropy = 0.0\nsamples = 1\nvalue = [1, 0, 0]"] ;
31 -> 32 ;
33 [label="X[1] <= 5.5\nentropy = 0.918\nsamples = 6\nvalue = [2, 0, 4]"] ;
31 -> 33 ;
34 [label="entropy = 0.0\nsamples = 3\nvalue = [0, 0, 3]"] ;
33 -> 34 ;
35 [label="X[1] <= 6.5\nentropy = 0.918\nsamples = 3\nvalue = [2, 0, 1]"] ;
33 -> 35 ;
36 [label="entropy = 1.0\nsamples = 2\nvalue = [1, 0, 1]"] ;
35 -> 36 ;
37 [label="entropy = 0.0\nsamples = 1\nvalue = [1, 0, 0]"] ;
35 -> 37 ;
38 [label="X[1] <= 1.0\nentropy = 1.573\nsamples = 44\nvalue = [12, 16, 16]"] ;
30 -> 38 ;
39 [label="entropy = 0.0\nsamples = 2\nvalue = [0, 0, 2]"] ;
38 -> 39 ;
40 [label="X[1] <= 4.5\nentropy = 1.575\nsamples = 42\nvalue = [12, 16, 14]"] ;
38 -> 40 ;
41 [label="X[1] <= 3.5\nentropy = 0.811\nsamples = 4\nvalue = [0, 3, 1]"] ;
40 -> 41 ;
42 [label="entropy = 1.0\nsamples = 2\nvalue = [0, 1, 1]"] ;
41 -> 42 ;
43 [label="entropy = 0.0\nsamples = 2\nvalue = [0, 2, 0]"] ;
41 -> 43 ;
44 [label="X[1] <= 5.5\nentropy = 1.584\nsamples = 38\nvalue = [12, 13, 13]"] ;
40 -> 44 ;
45 [label="entropy = 1.575\nsamples = 21\nvalue = [8, 7, 6]"] ;
44 -> 45 ;
46 [label="entropy = 1.549\nsamples = 17\nvalue = [4, 6, 7]"] ;
44 -> 46 ;
}